<?xml version="1.0"?>
<opencv_storage>
<stage7>
  <maxWeakCount>6</maxWeakCount>
  <stageThreshold>-1.3021677732467651e+00</stageThreshold>
  <weakClassifiers>
    <_>
      <internalNodes>
        0 -1 80136 -2.4399845860898495e-03</internalNodes>
      <leafValues>
        6.0000002384185791e-01 -8.0363637208938599e-01</leafValues></_>
    <_>
      <internalNodes>
        0 -1 86252 -4.3166792392730713e-01</internalNodes>
      <leafValues>
        -8.7464183568954468e-01 3.5494305193424225e-02</leafValues></_>
    <_>
      <internalNodes>
        0 -1 108654 -7.3903030715882778e-04</internalNodes>
      <leafValues>
        5.5975228548049927e-01 -4.0313479304313660e-01</leafValues></_>
    <_>
      <internalNodes>
        0 -1 12259 -1.4408594324777368e-05</internalNodes>
      <leafValues>
        3.2465171813964844e-01 -6.6081100702285767e-01</leafValues></_>
    <_>
      <internalNodes>
        0 -1 87849 9.3074023723602295e-02</internalNodes>
      <leafValues>
        -7.5677233934402466e-01 2.9187509417533875e-01</leafValues></_>
    <_>
      <internalNodes>
        0 -1 25004 4.9659959971904755e-02</internalNodes>
      <leafValues>
        2.3804497718811035e-01 -9.5288103818893433e-01</leafValues></_></weakClassifiers></stage7>
</opencv_storage>
